0.0317891 0.0275005 0.0604454 0.0449635 
0.568392 0.663263 2.31746 0.78828 
1.10976 -3.31475 3.26007 0.899741 
0.276872 1.84544 3.25016 0.768939 
0.574058 9.79193 1.77283 0.756366 
0.322309 11.7207 1.24889 0.880973 
-0.448631 12.7115 5.31351 0.912844 
-0.923114 3.92889 4.9074 0.716735 
-1.06524 -4.69208 5.87176 0.811921 
3.76927 3.4598 -2.62343 0.381543 
3.75712 -2.94861 -0.822314 0.441903 
2.50311 -3.52747 1.04519 0.353466 
0.798352 -9.15258 4.06602 0.442542 
0.433363 -2.578 5.18122 0.502782 
0.101947 0.0573782 4.39379 0.385531 
1.15581 0.20198 -0.540014 0.277536 
1.32778 0.664208 -1.25217 0.400578 
0.641052 -6.00511 0.0267151 0.287547 
1.2712 -2.6738 -0.804715 0.494447 
1.31942 3.89403 -0.415338 0.318541 
1.42215 -5.39845 0.356241 0.295914 
0.34571 9.31098 -4.29688 0.100947 
0.120363 -9.48108 -0.700488 0.183984 
0.948862 -11.1361 -1.01831 0.241713 
2.57318 2.6517 -3.18759 0.166377 
-4.6368 1.23473 -4.1379 1.59333 

5.60186 0.853275 -7.70148 
10.7983 0.0762762 -8.18302 
-12.0655 -0.793611 13.3801 
-1.49856 -1.94409 -1.65964 

