-0.432358 -0.981451 0.423253 -0.879258 
0.960286 -0.900789 0.441948 0.153629 
0.348041 -0.015019 0.689547 0.748934 
-0.870563 0.150593 -0.417178 -0.181694 
0.304782 0.692045 0.669621 -0.529418 
-0.193112 0.713756 0.698488 0.0161884 
0.0873894 0.0740876 -0.0585629 0.358261 
0.435158 -0.612391 0.667708 -0.9972 
-0.593842 0.0909604 -0.876459 -0.633555 
0.190171 0.565489 0.520074 -0.461788 
-0.44953 0.209621 -0.712853 -0.320094 
-0.639785 -0.130031 0.498212 0.664997 
-0.437986 0.167833 -0.864421 0.368902 
-0.118411 0.834067 -0.61491 0.968978 
-0.0918456 0.326528 0.327239 -0.656688 
0.714137 -0.00505324 -0.653888 -0.879705 
-0.914093 -0.530347 -0.51326 0.276078 
-0.964858 -0.993186 0.814291 -0.414388 
0.216435 -0.898563 0.265519 0.57665 
-0.0285941 -0.236269 0.241647 0.53342 
0.931564 0.377226 -0.0976782 -0.186848 
0.211293 0.287412 -0.217869 -0.880553 
-0.38606 -0.890631 -0.537241 -0.671923 
0.104316 -0.191129 -0.551628 0.190223 
0.278524 -0.0648883 -0.533698 0.313667 

-0.0580745 -0.719407 0.899279 
-0.841639 -0.61797 0.164797 
0.73501 0.353436 0.928528 
-0.0233427 -0.113144 0.860092 

