0.579739 0.408894 -0.12301 -0.0327671 
-0.0513623 -0.575905 -0.482025 0.500139 
0.313806 0.0215149 -0.966174 0.631039 
-0.165618 0.299067 -0.202998 -0.595171 
-0.476187 0.795662 0.431229 -0.497065 
0.683432 -0.0209537 0.701089 0.054699 
-0.162366 -0.545468 0.413713 -0.0450367 
-0.0288849 0.794 -0.917467 -0.449146 
0.202895 -0.0404767 0.518087 -0.848468 
0.383618 -0.963938 0.651672 -0.302575 
0.057577 0.685498 -0.671536 0.891959 
-0.0154351 0.125466 -0.703212 0.508378 
-0.0788728 0.728017 -0.988687 -0.395441 
-0.292937 0.712402 0.659258 0.544697 
-0.833066 0.0729705 -0.50034 0.138049 
-0.133029 -0.417806 0.688903 -0.930135 
0.541717 0.20699 -0.778602 -0.0746646 
0.243052 0.87307 0.62276 -0.699371 
0.558567 0.951223 -0.807413 -0.456868 
0.076689 -0.510625 -0.94849 0.997816 
-0.782608 -0.937177 -0.397625 -0.0755449 
0.775225 -0.738367 -0.530848 0.942158 
0.334603 -0.0311873 0.0802069 -0.798426 
0.551006 -0.23089 -0.72856 0.0927235 
0.976099 -0.507163 -0.981941 0.219151 

-0.634093 0.640819 0.51978 
0.924474 0.592042 0.712367 
-0.532394 -0.331269 -0.798258 
-0.480884 -0.333452 -0.580866 

